<?xml version="1.0"?>
<MethodSetup Method="BDT::BDT_TTH3">
  <GeneralInfo>
    <Info name="TMVA Release" value="4.2.1 [262657]"/>
    <Info name="ROOT Release" value="6.08/00 [395264]"/>
    <Info name="Creator" value="hbakhshi"/>
    <Info name="Date" value="Mon Jan 23 11:48:19 2017"/>
    <Info name="Host" value="Linux cp3lap20 4.4.0-47-generic #68-Ubuntu SMP Wed Oct 26 19:39:52 UTC 2016 x86_64 x86_64 x86_64 GNU/Linux"/>
    <Info name="Dir" value="/home/hbakhshi/Downloads/CERNBox/Personal/Projects/tHq/Analyzer/test/mva"/>
    <Info name="Training events" value="8000"/>
    <Info name="TrainingTime" value="6.21652842e-01"/>
    <Info name="AnalysisType" value="Classification"/>
  </GeneralInfo>
  <Options>
    <Option name="V" modified="Yes">False</Option>
    <Option name="VerbosityLevel" modified="No">Default</Option>
    <Option name="VarTransform" modified="No">None</Option>
    <Option name="H" modified="Yes">False</Option>
    <Option name="CreateMVAPdfs" modified="Yes">True</Option>
    <Option name="IgnoreNegWeightsInTraining" modified="No">False</Option>
    <Option name="NTrees" modified="No">10</Option>
    <Option name="MaxDepth" modified="No">3</Option>
    <Option name="MinNodeSize" modified="No">5%</Option>
    <Option name="nCuts" modified="Yes">0</Option>
    <Option name="BoostType" modified="Yes">AdaBoost</Option>
    <Option name="AdaBoostR2Loss" modified="No">quadratic</Option>
    <Option name="UseBaggedBoost" modified="No">False</Option>
    <Option name="Shrinkage" modified="No">1.000000e+00</Option>
    <Option name="AdaBoostBeta" modified="No">1.500000e-01</Option>
    <Option name="UseRandomisedTrees" modified="No">False</Option>
    <Option name="UseNvars" modified="No">3</Option>
    <Option name="UsePoissonNvars" modified="No">True</Option>
    <Option name="BaggedSampleFraction" modified="No">6.000000e-01</Option>
    <Option name="UseYesNoLeaf" modified="No">True</Option>
    <Option name="NegWeightTreatment" modified="Yes">inverseboostnegweights</Option>
    <Option name="Css" modified="No">1.000000e+00</Option>
    <Option name="Cts_sb" modified="No">1.000000e+00</Option>
    <Option name="Ctb_ss" modified="No">1.000000e+00</Option>
    <Option name="Cbb" modified="No">1.000000e+00</Option>
    <Option name="NodePurityLimit" modified="No">5.000000e-01</Option>
    <Option name="SeparationType" modified="Yes">giniindex</Option>
    <Option name="DoBoostMonitor" modified="No">False</Option>
    <Option name="UseFisherCuts" modified="No">False</Option>
    <Option name="MinLinCorrForFisher" modified="No">8.000000e-01</Option>
    <Option name="UseExclusiveVars" modified="No">False</Option>
    <Option name="DoPreselection" modified="No">False</Option>
    <Option name="SigToBkgFraction" modified="No">1.000000e+00</Option>
    <Option name="PruneMethod" modified="No">nopruning</Option>
    <Option name="PruneStrength" modified="No">0.000000e+00</Option>
    <Option name="PruningValFraction" modified="No">5.000000e-01</Option>
    <Option name="nEventsMin" modified="No">0</Option>
    <Option name="UseBaggedGrad" modified="No">False</Option>
    <Option name="GradBaggingFraction" modified="No">6.000000e-01</Option>
    <Option name="UseNTrainEvents" modified="No">0</Option>
    <Option name="NNodesMax" modified="No">0</Option>
  </Options>
  <Variables NVar="6">
    <Variable VarIndex="0" Expression="nJets" Label="nJets" Title="nJets" Unit="" Internal="nJets" Type="I" Min="2.00000000e+00" Max="1.10000000e+01"/>
    <Variable VarIndex="1" Expression="Max$(abs(jetsEta))" Label="Max$(abs(jetsEta))" Title="jprimeeta" Unit="" Internal="Max__abs_jetsEta__" Type="F" Min="2.95669585e-02" Max="4.69769096e+00"/>
    <Variable VarIndex="2" Expression="met.pt" Label="met.pt" Title="met" Unit="" Internal="met.pt" Type="F" Min="3.00276566e+01" Max="7.53858398e+02"/>
    <Variable VarIndex="3" Expression="lepton.charge" Label="lepton.charge" Title="LepCharge" Unit="" Internal="lepton.charge" Type="I" Min="-1.00000000e+00" Max="1.00000000e+00"/>
    <Variable VarIndex="4" Expression="eventshapes.aplanarity" Label="eventshapes.aplanarity" Title="aplanarity" Unit="" Internal="eventshapes.aplanarity" Type="F" Min="5.04388554e-05" Max="3.72132808e-01"/>
    <Variable VarIndex="5" Expression="foxwolf1.ONE" Label="foxwolf1.ONE" Title="fwf1ONE" Unit="" Internal="foxwolf1.ONE" Type="F" Min="2.01010727e-03" Max="8.72079620e+01"/>
  </Variables>
  <Spectators NSpec="0"/>
  <Classes NClass="2">
    <Class Name="Signal" Index="0"/>
    <Class Name="Background" Index="1"/>
  </Classes>
  <Transformations NTransformations="0"/>
  <MVAPdfs>
    <PDF Name="BDT_TTH3_PDFSig" MinNSmooth="0" MaxNSmooth="0" InterpolMethod="2" KDE_type="1" KDE_iter="1" KDE_border="1" KDE_finefactor="1.0000000000000000e+00">
      <Histogram Name="BDT_tr_S_original" NBins="160" XMin="-1.0000000000000000e+00" XMax="1.0000000000000000e+00" HasEquidistantBins="1">
        3.27521152e+00 0.00000000e+00 0.00000000e+00 0.00000000e+00 0.00000000e+00 0.00000000e+00 0.00000000e+00 0.00000000e+00 0.00000000e+00 0.00000000e+00 0.00000000e+00 0.00000000e+00 0.00000000e+00 2.23317749e+00 0.00000000e+00 2.21558936e+00 0.00000000e+00 4.25313873e-02 0.00000000e+00 0.00000000e+00 0.00000000e+00 0.00000000e+00 0.00000000e+00 0.00000000e+00 3.61140940e-01 0.00000000e+00 1.02668104e+00 0.00000000e+00 1.54552771e+00 0.00000000e+00 0.00000000e+00 0.00000000e+00 0.00000000e+00 0.00000000e+00 0.00000000e+00 0.00000000e+00 0.00000000e+00 0.00000000e+00 8.35107200e-02 9.53721680e-01 3.39179504e-01 2.26437837e-01 1.15497257e+00 0.00000000e+00 4.29266072e-01 0.00000000e+00 0.00000000e+00 0.00000000e+00 0.00000000e+00 0.00000000e+00 0.00000000e+00 6.01370768e-01 0.00000000e+00 0.00000000e+00 3.50725854e-02 2.02768973e+00 0.00000000e+00 4.37347699e+00 8.08982561e-02 0.00000000e+00 0.00000000e+00 3.99305813e-02 3.70744433e-02 0.00000000e+00 1.48127208e-01 0.00000000e+00 1.08541419e-01 4.67895169e-01 0.00000000e+00 0.00000000e+00 3.64448826e+00 8.73665381e-02 0.00000000e+00 6.81366844e+00 0.00000000e+00 1.80067705e-01 1.49299262e-01 0.00000000e+00 0.00000000e+00 1.25525114e+00 5.82594875e-01 0.00000000e+00 2.84051935e-01 5.40159671e-01 3.71724536e-02 0.00000000e+00 7.02177077e+00 0.00000000e+00 0.00000000e+00 1.17310703e+00 5.34758064e-02 4.99839040e-01 0.00000000e+00 0.00000000e+00 0.00000000e+00 2.37686250e+00 0.00000000e+00 5.69712061e-02 0.00000000e+00 6.78383583e-01 0.00000000e+00 0.00000000e+00 6.12759500e+00 1.52002751e-01 1.72131740e+00 1.78456806e-01 7.79154453e-02 1.64538261e-01 0.00000000e+00 0.00000000e+00 0.00000000e+00 0.00000000e+00 0.00000000e+00 0.00000000e+00 0.00000000e+00 6.65713869e-01 0.00000000e+00 1.28276640e+00 0.00000000e+00 5.03408698e-01 1.09169258e+00 0.00000000e+00 0.00000000e+00 0.00000000e+00 0.00000000e+00 0.00000000e+00 0.00000000e+00 0.00000000e+00 1.42406646e+00 0.00000000e+00 3.75357113e-02 1.26222989e+00 0.00000000e+00 4.54046345e+00 0.00000000e+00 8.86594699e-01 0.00000000e+00 0.00000000e+00 0.00000000e+00 0.00000000e+00 0.00000000e+00 0.00000000e+00 0.00000000e+00 0.00000000e+00 3.57429902e+00 0.00000000e+00 3.34615974e+00 0.00000000e+00 5.72168861e+00 0.00000000e+00 0.00000000e+00 0.00000000e+00 0.00000000e+00 0.00000000e+00 0.00000000e+00 0.00000000e+00 0.00000000e+00 0.00000000e+00 0.00000000e+00 0.00000000e+00 
      </Histogram>
    </PDF>
    <PDF Name="BDT_TTH3_PDFBkg" MinNSmooth="0" MaxNSmooth="0" InterpolMethod="2" KDE_type="1" KDE_iter="1" KDE_border="1" KDE_finefactor="1.0000000000000000e+00">
      <Histogram Name="BDT_tr_B_original" NBins="160" XMin="-1.0000000000000000e+00" XMax="1.0000000000000000e+00" HasEquidistantBins="1">
        3.04339769e+01 0.00000000e+00 0.00000000e+00 0.00000000e+00 0.00000000e+00 0.00000000e+00 0.00000000e+00 0.00000000e+00 0.00000000e+00 0.00000000e+00 0.00000000e+00 0.00000000e+00 0.00000000e+00 5.30342326e+00 0.00000000e+00 8.05034162e+00 0.00000000e+00 0.00000000e+00 0.00000000e+00 0.00000000e+00 0.00000000e+00 0.00000000e+00 0.00000000e+00 0.00000000e+00 1.37269098e+00 0.00000000e+00 1.38549233e+00 0.00000000e+00 2.08849537e+00 4.64119956e-02 0.00000000e+00 -1.75901129e-02 6.12423420e-02 0.00000000e+00 0.00000000e+00 0.00000000e+00 0.00000000e+00 0.00000000e+00 4.04324486e-01 2.14542388e+00 1.18799462e-01 6.54768658e-01 1.14621545e+00 0.00000000e+00 3.24468491e-01 0.00000000e+00 0.00000000e+00 0.00000000e+00 0.00000000e+00 0.00000000e+00 0.00000000e+00 6.43171939e-01 0.00000000e+00 0.00000000e+00 1.50424062e-01 1.02182465e+00 0.00000000e+00 6.73542033e+00 -6.56841140e-02 0.00000000e+00 0.00000000e+00 0.00000000e+00 1.73025830e-01 0.00000000e+00 3.66465350e-01 0.00000000e+00 1.14986890e-01 6.01326629e-01 0.00000000e+00 0.00000000e+00 3.48839357e+00 6.29437401e-02 0.00000000e+00 3.45754926e+00 0.00000000e+00 5.97750142e-02 3.38121049e-01 1.28415823e-01 0.00000000e+00 2.98742117e-01 2.51658944e-01 0.00000000e+00 2.49914927e-01 -8.05879732e-02 0.00000000e+00 0.00000000e+00 2.72308468e+00 0.00000000e+00 0.00000000e+00 1.03134481e+00 -1.87926672e-01 5.23688736e-02 0.00000000e+00 0.00000000e+00 0.00000000e+00 -1.16103782e-01 0.00000000e+00 0.00000000e+00 0.00000000e+00 4.14741928e-02 0.00000000e+00 0.00000000e+00 1.22925938e+00 1.98868121e-01 4.15164618e-01 4.46327370e-02 -1.19282558e-01 4.06945487e-01 0.00000000e+00 0.00000000e+00 0.00000000e+00 0.00000000e+00 5.56576355e-02 0.00000000e+00 0.00000000e+00 2.19071214e-01 0.00000000e+00 1.34916745e-01 0.00000000e+00 4.83930689e-01 1.54798222e-01 0.00000000e+00 0.00000000e+00 0.00000000e+00 0.00000000e+00 0.00000000e+00 0.00000000e+00 0.00000000e+00 -1.13163030e-01 0.00000000e+00 0.00000000e+00 -3.01536868e-01 0.00000000e+00 6.34219387e-01 0.00000000e+00 1.76796447e-01 0.00000000e+00 0.00000000e+00 0.00000000e+00 0.00000000e+00 0.00000000e+00 0.00000000e+00 0.00000000e+00 0.00000000e+00 1.74391346e-01 0.00000000e+00 8.60819892e-02 0.00000000e+00 1.06063321e+00 0.00000000e+00 0.00000000e+00 0.00000000e+00 0.00000000e+00 0.00000000e+00 0.00000000e+00 0.00000000e+00 0.00000000e+00 0.00000000e+00 0.00000000e+00 0.00000000e+00 
      </Histogram>
    </PDF>
  </MVAPdfs>
  <Weights NTrees="10" AnalysisType="0">
    <BinaryTree type="DecisionTree" boostWeight="1.6094441098332662e-01" itree="0">
      <Node pos="s" depth="0" NCoef="0" IVar="0" Cut="4.5000000000000000e+00" cType="1" res="-9.9000000000000000e+01" rms="0.0000000000000000e+00" purity="5.0000000000000000e-01" nType="0">
        <Node pos="l" depth="1" NCoef="0" IVar="1" Cut="2.2130079269409180e+00" cType="0" res="-9.9000000000000000e+01" rms="0.0000000000000000e+00" purity="6.4266014099121094e-01" nType="0">
          <Node pos="l" depth="2" NCoef="0" IVar="-1" Cut="3.5000000000000000e+00" cType="1" res="-9.9000000000000000e+01" rms="0.0000000000000000e+00" purity="8.2395803928375244e-01" nType="1"/>
          <Node pos="r" depth="2" NCoef="0" IVar="0" Cut="3.5000000000000000e+00" cType="1" res="-9.9000000000000000e+01" rms="0.0000000000000000e+00" purity="4.7145092487335205e-01" nType="0">
            <Node pos="l" depth="3" NCoef="0" IVar="-1" Cut="0.0000000000000000e+00" cType="1" res="-9.9000000000000000e+01" rms="0.0000000000000000e+00" purity="5.7994234561920166e-01" nType="1"/>
            <Node pos="r" depth="3" NCoef="0" IVar="-1" Cut="0.0000000000000000e+00" cType="1" res="-9.9000000000000000e+01" rms="0.0000000000000000e+00" purity="2.5582826137542725e-01" nType="-1"/>
          </Node>
        </Node>
        <Node pos="r" depth="1" NCoef="0" IVar="1" Cut="3.2197194099426270e+00" cType="0" res="-9.9000000000000000e+01" rms="0.0000000000000000e+00" purity="2.2752285003662109e-01" nType="0">
          <Node pos="l" depth="2" NCoef="0" IVar="-1" Cut="0.0000000000000000e+00" cType="1" res="-9.9000000000000000e+01" rms="0.0000000000000000e+00" purity="5.1681888103485107e-01" nType="1"/>
          <Node pos="r" depth="2" NCoef="0" IVar="-1" Cut="2.4955024719238281e+00" cType="0" res="-9.9000000000000000e+01" rms="0.0000000000000000e+00" purity="1.3900694251060486e-01" nType="-1"/>
        </Node>
      </Node>
    </BinaryTree>
    <BinaryTree type="DecisionTree" boostWeight="1.3235810383636409e-01" itree="1">
      <Node pos="s" depth="0" NCoef="0" IVar="0" Cut="4.5000000000000000e+00" cType="1" res="-9.9000000000000000e+01" rms="0.0000000000000000e+00" purity="4.5911991596221924e-01" nType="0">
        <Node pos="l" depth="1" NCoef="0" IVar="1" Cut="2.6448392868041992e+00" cType="0" res="-9.9000000000000000e+01" rms="0.0000000000000000e+00" purity="5.8334732055664062e-01" nType="0">
          <Node pos="l" depth="2" NCoef="0" IVar="-1" Cut="3.5000000000000000e+00" cType="1" res="-9.9000000000000000e+01" rms="0.0000000000000000e+00" purity="7.9515010118484497e-01" nType="1"/>
          <Node pos="r" depth="2" NCoef="0" IVar="0" Cut="3.5000000000000000e+00" cType="1" res="-9.9000000000000000e+01" rms="0.0000000000000000e+00" purity="4.6640393137931824e-01" nType="0">
            <Node pos="l" depth="3" NCoef="0" IVar="-1" Cut="0.0000000000000000e+00" cType="1" res="-9.9000000000000000e+01" rms="0.0000000000000000e+00" purity="5.5289828777313232e-01" nType="1"/>
            <Node pos="r" depth="3" NCoef="0" IVar="-1" Cut="0.0000000000000000e+00" cType="1" res="-9.9000000000000000e+01" rms="0.0000000000000000e+00" purity="3.1495442986488342e-01" nType="-1"/>
          </Node>
        </Node>
        <Node pos="r" depth="1" NCoef="0" IVar="-1" Cut="3.2710462808609009e-02" cType="1" res="-9.9000000000000000e+01" rms="0.0000000000000000e+00" purity="2.2128134965896606e-01" nType="-1"/>
      </Node>
    </BinaryTree>
    <BinaryTree type="DecisionTree" boostWeight="1.1556794116609492e-01" itree="2">
      <Node pos="s" depth="0" NCoef="0" IVar="0" Cut="4.5000000000000000e+00" cType="1" res="-9.9000000000000000e+01" rms="0.0000000000000000e+00" purity="4.4709128141403198e-01" nType="0">
        <Node pos="l" depth="1" NCoef="0" IVar="1" Cut="2.2085504531860352e+00" cType="0" res="-9.9000000000000000e+01" rms="0.0000000000000000e+00" purity="5.4750412702560425e-01" nType="0">
          <Node pos="l" depth="2" NCoef="0" IVar="-1" Cut="3.5000000000000000e+00" cType="1" res="-9.9000000000000000e+01" rms="0.0000000000000000e+00" purity="7.0574283599853516e-01" nType="1"/>
          <Node pos="r" depth="2" NCoef="0" IVar="-1" Cut="9.3762283325195312e+01" cType="1" res="-9.9000000000000000e+01" rms="0.0000000000000000e+00" purity="4.0408915281295776e-01" nType="-1"/>
        </Node>
        <Node pos="r" depth="1" NCoef="0" IVar="-1" Cut="3.2710462808609009e-02" cType="1" res="-9.9000000000000000e+01" rms="0.0000000000000000e+00" purity="2.4492654204368591e-01" nType="-1"/>
      </Node>
    </BinaryTree>
    <BinaryTree type="DecisionTree" boostWeight="1.0371663686671787e-01" itree="3">
      <Node pos="s" depth="0" NCoef="0" IVar="4" Cut="2.8905678540468216e-02" cType="1" res="-9.9000000000000000e+01" rms="0.0000000000000000e+00" purity="4.5200088620185852e-01" nType="0">
        <Node pos="l" depth="1" NCoef="0" IVar="0" Cut="3.5000000000000000e+00" cType="1" res="-9.9000000000000000e+01" rms="0.0000000000000000e+00" purity="5.8987057209014893e-01" nType="0">
          <Node pos="l" depth="2" NCoef="0" IVar="-1" Cut="0.0000000000000000e+00" cType="1" res="-9.9000000000000000e+01" rms="0.0000000000000000e+00" purity="7.7917969226837158e-01" nType="1"/>
          <Node pos="r" depth="2" NCoef="0" IVar="3" Cut="0.0000000000000000e+00" cType="0" res="-9.9000000000000000e+01" rms="0.0000000000000000e+00" purity="4.8076048493385315e-01" nType="0">
            <Node pos="l" depth="3" NCoef="0" IVar="-1" Cut="0.0000000000000000e+00" cType="1" res="-9.9000000000000000e+01" rms="0.0000000000000000e+00" purity="5.6733334064483643e-01" nType="1"/>
            <Node pos="r" depth="3" NCoef="0" IVar="-1" Cut="0.0000000000000000e+00" cType="1" res="-9.9000000000000000e+01" rms="0.0000000000000000e+00" purity="3.6882472038269043e-01" nType="-1"/>
          </Node>
        </Node>
        <Node pos="r" depth="1" NCoef="0" IVar="-1" Cut="4.5000000000000000e+00" cType="1" res="-9.9000000000000000e+01" rms="0.0000000000000000e+00" purity="3.3032691478729248e-01" nType="-1"/>
      </Node>
    </BinaryTree>
    <BinaryTree type="DecisionTree" boostWeight="1.0065887860813676e-01" itree="4">
      <Node pos="s" depth="0" NCoef="0" IVar="0" Cut="4.5000000000000000e+00" cType="1" res="-9.9000000000000000e+01" rms="0.0000000000000000e+00" purity="4.5258322358131409e-01" nType="0">
        <Node pos="l" depth="1" NCoef="0" IVar="4" Cut="1.8922293558716774e-02" cType="1" res="-9.9000000000000000e+01" rms="0.0000000000000000e+00" purity="5.4305094480514526e-01" nType="0">
          <Node pos="l" depth="2" NCoef="0" IVar="-1" Cut="7.2887420654296875e+01" cType="1" res="-9.9000000000000000e+01" rms="0.0000000000000000e+00" purity="6.8729221820831299e-01" nType="1"/>
          <Node pos="r" depth="2" NCoef="0" IVar="2" Cut="7.8538726806640625e+01" cType="1" res="-9.9000000000000000e+01" rms="0.0000000000000000e+00" purity="4.6174943447113037e-01" nType="0">
            <Node pos="l" depth="3" NCoef="0" IVar="-1" Cut="0.0000000000000000e+00" cType="1" res="-9.9000000000000000e+01" rms="0.0000000000000000e+00" purity="5.5118787288665771e-01" nType="1"/>
            <Node pos="r" depth="3" NCoef="0" IVar="-1" Cut="0.0000000000000000e+00" cType="1" res="-9.9000000000000000e+01" rms="0.0000000000000000e+00" purity="3.5928797721862793e-01" nType="-1"/>
          </Node>
        </Node>
        <Node pos="r" depth="1" NCoef="0" IVar="-1" Cut="2.4955024719238281e+00" cType="0" res="-9.9000000000000000e+01" rms="0.0000000000000000e+00" purity="2.6676881313323975e-01" nType="-1"/>
      </Node>
    </BinaryTree>
    <BinaryTree type="DecisionTree" boostWeight="1.0051594254147389e-01" itree="5">
      <Node pos="s" depth="0" NCoef="0" IVar="0" Cut="3.5000000000000000e+00" cType="1" res="-9.9000000000000000e+01" rms="0.0000000000000000e+00" purity="4.4624128937721252e-01" nType="0">
        <Node pos="l" depth="1" NCoef="0" IVar="1" Cut="2.1973752975463867e+00" cType="0" res="-9.9000000000000000e+01" rms="0.0000000000000000e+00" purity="5.9639614820480347e-01" nType="0">
          <Node pos="l" depth="2" NCoef="0" IVar="-1" Cut="0.0000000000000000e+00" cType="1" res="-9.9000000000000000e+01" rms="0.0000000000000000e+00" purity="8.2746130228042603e-01" nType="1"/>
          <Node pos="r" depth="2" NCoef="0" IVar="-1" Cut="0.0000000000000000e+00" cType="1" res="-9.9000000000000000e+01" rms="0.0000000000000000e+00" purity="4.6809524297714233e-01" nType="-1"/>
        </Node>
        <Node pos="r" depth="1" NCoef="0" IVar="4" Cut="1.8511833623051643e-02" cType="1" res="-9.9000000000000000e+01" rms="0.0000000000000000e+00" purity="3.5077697038650513e-01" nType="0">
          <Node pos="l" depth="2" NCoef="0" IVar="1" Cut="3.4182145595550537e+00" cType="0" res="-9.9000000000000000e+01" rms="0.0000000000000000e+00" purity="4.9648031592369080e-01" nType="0">
            <Node pos="l" depth="3" NCoef="0" IVar="-1" Cut="0.0000000000000000e+00" cType="1" res="-9.9000000000000000e+01" rms="0.0000000000000000e+00" purity="5.7505434751510620e-01" nType="1"/>
            <Node pos="r" depth="3" NCoef="0" IVar="-1" Cut="0.0000000000000000e+00" cType="1" res="-9.9000000000000000e+01" rms="0.0000000000000000e+00" purity="4.1964301466941833e-01" nType="-1"/>
          </Node>
          <Node pos="r" depth="2" NCoef="0" IVar="-1" Cut="1.9442623138427734e+01" cType="1" res="-9.9000000000000000e+01" rms="0.0000000000000000e+00" purity="2.6437172293663025e-01" nType="-1"/>
        </Node>
      </Node>
    </BinaryTree>
    <BinaryTree type="DecisionTree" boostWeight="8.9970581829813948e-02" itree="6">
      <Node pos="s" depth="0" NCoef="0" IVar="0" Cut="3.5000000000000000e+00" cType="1" res="-9.9000000000000000e+01" rms="0.0000000000000000e+00" purity="4.5466250181198120e-01" nType="0">
        <Node pos="l" depth="1" NCoef="0" IVar="1" Cut="2.2224912643432617e+00" cType="0" res="-9.9000000000000000e+01" rms="0.0000000000000000e+00" purity="6.0185760259628296e-01" nType="0">
          <Node pos="l" depth="2" NCoef="0" IVar="-1" Cut="0.0000000000000000e+00" cType="1" res="-9.9000000000000000e+01" rms="0.0000000000000000e+00" purity="8.0213665962219238e-01" nType="1"/>
          <Node pos="r" depth="2" NCoef="0" IVar="-1" Cut="0.0000000000000000e+00" cType="1" res="-9.9000000000000000e+01" rms="0.0000000000000000e+00" purity="4.9484890699386597e-01" nType="-1"/>
        </Node>
        <Node pos="r" depth="1" NCoef="0" IVar="0" Cut="5.5000000000000000e+00" cType="1" res="-9.9000000000000000e+01" rms="0.0000000000000000e+00" purity="3.6103650927543640e-01" nType="0">
          <Node pos="l" depth="2" NCoef="0" IVar="1" Cut="2.7283186912536621e+00" cType="0" res="-9.9000000000000000e+01" rms="0.0000000000000000e+00" purity="4.2109879851341248e-01" nType="0">
            <Node pos="l" depth="3" NCoef="0" IVar="-1" Cut="0.0000000000000000e+00" cType="1" res="-9.9000000000000000e+01" rms="0.0000000000000000e+00" purity="5.4427051544189453e-01" nType="1"/>
            <Node pos="r" depth="3" NCoef="0" IVar="-1" Cut="0.0000000000000000e+00" cType="1" res="-9.9000000000000000e+01" rms="0.0000000000000000e+00" purity="3.1899622082710266e-01" nType="-1"/>
          </Node>
          <Node pos="r" depth="2" NCoef="0" IVar="-1" Cut="0.0000000000000000e+00" cType="1" res="-9.9000000000000000e+01" rms="0.0000000000000000e+00" purity="1.7818996310234070e-01" nType="-1"/>
        </Node>
      </Node>
    </BinaryTree>
    <BinaryTree type="DecisionTree" boostWeight="8.6080766012334123e-02" itree="7">
      <Node pos="s" depth="0" NCoef="0" IVar="0" Cut="3.5000000000000000e+00" cType="1" res="-9.9000000000000000e+01" rms="0.0000000000000000e+00" purity="4.5738980174064636e-01" nType="0">
        <Node pos="l" depth="1" NCoef="0" IVar="-1" Cut="2.2224912643432617e+00" cType="0" res="-9.9000000000000000e+01" rms="0.0000000000000000e+00" purity="6.0726988315582275e-01" nType="1"/>
        <Node pos="r" depth="1" NCoef="0" IVar="0" Cut="5.5000000000000000e+00" cType="1" res="-9.9000000000000000e+01" rms="0.0000000000000000e+00" purity="3.6217847466468811e-01" nType="0">
          <Node pos="l" depth="2" NCoef="0" IVar="4" Cut="1.8511833623051643e-02" cType="1" res="-9.9000000000000000e+01" rms="0.0000000000000000e+00" purity="4.1634660959243774e-01" nType="0">
            <Node pos="l" depth="3" NCoef="0" IVar="-1" Cut="0.0000000000000000e+00" cType="1" res="-9.9000000000000000e+01" rms="0.0000000000000000e+00" purity="5.3787028789520264e-01" nType="1"/>
            <Node pos="r" depth="3" NCoef="0" IVar="-1" Cut="0.0000000000000000e+00" cType="1" res="-9.9000000000000000e+01" rms="0.0000000000000000e+00" purity="3.3868998289108276e-01" nType="-1"/>
          </Node>
          <Node pos="r" depth="2" NCoef="0" IVar="-1" Cut="0.0000000000000000e+00" cType="1" res="-9.9000000000000000e+01" rms="0.0000000000000000e+00" purity="1.9174852967262268e-01" nType="-1"/>
        </Node>
      </Node>
    </BinaryTree>
    <BinaryTree type="DecisionTree" boostWeight="7.2971889520253366e-02" itree="8">
      <Node pos="s" depth="0" NCoef="0" IVar="0" Cut="3.5000000000000000e+00" cType="1" res="-9.9000000000000000e+01" rms="0.0000000000000000e+00" purity="4.4908607006072998e-01" nType="0">
        <Node pos="l" depth="1" NCoef="0" IVar="1" Cut="2.1973752975463867e+00" cType="0" res="-9.9000000000000000e+01" rms="0.0000000000000000e+00" purity="5.7732456922531128e-01" nType="0">
          <Node pos="l" depth="2" NCoef="0" IVar="-1" Cut="0.0000000000000000e+00" cType="1" res="-9.9000000000000000e+01" rms="0.0000000000000000e+00" purity="7.5446605682373047e-01" nType="1"/>
          <Node pos="r" depth="2" NCoef="0" IVar="-1" Cut="0.0000000000000000e+00" cType="1" res="-9.9000000000000000e+01" rms="0.0000000000000000e+00" purity="4.8485365509986877e-01" nType="-1"/>
        </Node>
        <Node pos="r" depth="1" NCoef="0" IVar="-1" Cut="1.9425643920898438e+01" cType="1" res="-9.9000000000000000e+01" rms="0.0000000000000000e+00" purity="3.6652851104736328e-01" nType="-1"/>
      </Node>
    </BinaryTree>
    <BinaryTree type="DecisionTree" boostWeight="8.5633441078266634e-02" itree="9">
      <Node pos="s" depth="0" NCoef="0" IVar="0" Cut="5.5000000000000000e+00" cType="1" res="-9.9000000000000000e+01" rms="0.0000000000000000e+00" purity="4.6163007616996765e-01" nType="0">
        <Node pos="l" depth="1" NCoef="0" IVar="5" Cut="1.9431621551513672e+01" cType="1" res="-9.9000000000000000e+01" rms="0.0000000000000000e+00" purity="5.0194895267486572e-01" nType="0">
          <Node pos="l" depth="2" NCoef="0" IVar="4" Cut="6.9611117243766785e-02" cType="1" res="-9.9000000000000000e+01" rms="0.0000000000000000e+00" purity="5.4385346174240112e-01" nType="0">
            <Node pos="l" depth="3" NCoef="0" IVar="-1" Cut="0.0000000000000000e+00" cType="1" res="-9.9000000000000000e+01" rms="0.0000000000000000e+00" purity="5.9808081388473511e-01" nType="1"/>
            <Node pos="r" depth="3" NCoef="0" IVar="-1" Cut="0.0000000000000000e+00" cType="1" res="-9.9000000000000000e+01" rms="0.0000000000000000e+00" purity="4.0901577472686768e-01" nType="-1"/>
          </Node>
          <Node pos="r" depth="2" NCoef="0" IVar="-1" Cut="0.0000000000000000e+00" cType="1" res="-9.9000000000000000e+01" rms="0.0000000000000000e+00" purity="2.8535407781600952e-01" nType="-1"/>
        </Node>
        <Node pos="r" depth="1" NCoef="0" IVar="-1" Cut="0.0000000000000000e+00" cType="1" res="-9.9000000000000000e+01" rms="0.0000000000000000e+00" purity="2.1761220693588257e-01" nType="-1"/>
      </Node>
    </BinaryTree>
  </Weights>
</MethodSetup>
