<?xml version="1.0"?>
<MethodSetup Method="MLP::MLP">
  <GeneralInfo>
    <Info name="TMVA Release" value="4.2.1 [262657]"/>
    <Info name="ROOT Release" value="6.16/00 [397312]"/>
    <Info name="Creator" value="prsaha"/>
    <Info name="Date" value="Sun Apr  7 14:02:47 2019"/>
    <Info name="Host" value="Linux buildhw-05.phx2.fedoraproject.org 4.19.7-300.fc29.x86_64 #1 SMP Wed Dec 5 22:21:07 UTC 2018 x86_64 x86_64 x86_64 GNU/Linux"/>
    <Info name="Dir" value="/afs/cern.ch/work/p/prsaha/public/flashgg_slc7/CMSSW_9_4_9/src/flashgg/Systematics/test/result"/>
    <Info name="Training events" value="55162"/>
    <Info name="TrainingTime" value="4.19545742e+02"/>
    <Info name="AnalysisType" value="Classification"/>
  </GeneralInfo>
  <Options>
    <Option name="NCycles" modified="Yes">600</Option>
    <Option name="HiddenLayers" modified="Yes">N+5</Option>
    <Option name="NeuronType" modified="Yes">tanh</Option>
    <Option name="RandomSeed" modified="No">1</Option>
    <Option name="EstimatorType" modified="No">CE</Option>
    <Option name="NeuronInputType" modified="No">sum</Option>
    <Option name="V" modified="Yes">False</Option>
    <Option name="VerbosityLevel" modified="No">Default</Option>
    <Option name="VarTransform" modified="Yes">N</Option>
    <Option name="H" modified="Yes">True</Option>
    <Option name="CreateMVAPdfs" modified="No">False</Option>
    <Option name="IgnoreNegWeightsInTraining" modified="No">False</Option>
    <Option name="TrainingMethod" modified="No">BP</Option>
    <Option name="LearningRate" modified="No">2.000000e-02</Option>
    <Option name="DecayRate" modified="No">1.000000e-02</Option>
    <Option name="TestRate" modified="Yes">5</Option>
    <Option name="EpochMonitoring" modified="No">False</Option>
    <Option name="Sampling" modified="No">1.000000e+00</Option>
    <Option name="SamplingEpoch" modified="No">1.000000e+00</Option>
    <Option name="SamplingImportance" modified="No">1.000000e+00</Option>
    <Option name="SamplingTraining" modified="No">True</Option>
    <Option name="SamplingTesting" modified="No">False</Option>
    <Option name="ResetStep" modified="No">50</Option>
    <Option name="Tau" modified="No">3.000000e+00</Option>
    <Option name="BPMode" modified="No">sequential</Option>
    <Option name="BatchSize" modified="No">-1</Option>
    <Option name="ConvergenceImprove" modified="No">1.000000e-30</Option>
    <Option name="ConvergenceTests" modified="No">-1</Option>
    <Option name="UseRegulator" modified="Yes">False</Option>
    <Option name="UpdateLimit" modified="No">10000</Option>
    <Option name="CalculateErrors" modified="No">False</Option>
    <Option name="WeightRange" modified="No">1.000000e+00</Option>
  </Options>
  <Variables NVar="15">
    <Variable VarIndex="0" Expression="dipho_pt" Label="dipho_pt" Title="dipho_pt" Unit="units" Internal="dipho_pt" Type="F" Min="6.35790408e-01" Max="1.55816333e+03"/>
    <Variable VarIndex="1" Expression="n_jets" Label="n_jets" Title="n_jets" Unit="units" Internal="n_jets" Type="F" Min="2.00000000e+00" Max="1.40000000e+01"/>
    <Variable VarIndex="2" Expression="n_bjets" Label="n_bjets" Title="n_bjets" Unit="units" Internal="n_bjets" Type="F" Min="1.00000000e+00" Max="6.00000000e+00"/>
    <Variable VarIndex="3" Expression="n_centraljets" Label="n_centraljets" Title="n_centraljets" Unit="units" Internal="n_centraljets" Type="F" Min="0.00000000e+00" Max="1.10000000e+01"/>
    <Variable VarIndex="4" Expression="bjet1_pt" Label="bjet1_pt" Title="bjet1_pt" Unit="units" Internal="bjet1_pt" Type="F" Min="2.50012875e+01" Max="1.09971924e+03"/>
    <Variable VarIndex="5" Expression="fwdjet1_eta" Label="fwdjet1_eta" Title="fwdjet1_eta" Unit="units" Internal="fwdjet1_eta" Type="F" Min="-4.99991989e+00" Max="4.99957466e+00"/>
    <Variable VarIndex="6" Expression="dEta_leptonfwdjet" Label="dEta_leptonfwdjet" Title="dEta_leptonfwdjet" Unit="units" Internal="dEta_leptonfwdjet" Type="F" Min="1.96099281e-05" Max="7.32551765e+00"/>
    <Variable VarIndex="7" Expression="top_mt" Label="top_mt" Title="top_mt11" Unit="units" Internal="top_mt" Type="F" Min="4.90811005e+01" Max="1.73221570e+03"/>
    <Variable VarIndex="8" Expression="dr_tHchainfwdjet" Label="dr_tHchainfwdjet" Title="dRtHchainfwdjet" Unit="units" Internal="dr_tHchainfwdjet" Type="F" Min="2.29680054e-02" Max="1.04682913e+01"/>
    <Variable VarIndex="9" Expression="dr_leptonbjet" Label="dr_leptonbjet" Title="dRleptonbjet" Unit="units" Internal="dr_leptonbjet" Type="F" Min="4.00472850e-01" Max="5.59380579e+00"/>
    <Variable VarIndex="10" Expression="dr_leptonfwdjet" Label="dr_leptonfwdjet" Title="dRleptonfwdjet" Unit="units" Internal="dr_leptonfwdjet" Type="F" Min="4.02735442e-01" Max="7.73042631e+00"/>
    <Variable VarIndex="11" Expression="dr_leadphofwdjet" Label="dr_leadphofwdjet" Title="dRleadphofwdjet" Unit="units" Internal="dr_leadphofwdjet" Type="F" Min="4.11823750e-01" Max="7.32318592e+00"/>
    <Variable VarIndex="12" Expression="dr_subleadphofwdjet" Label="dr_subleadphofwdjet" Title="dRsubleadphofwdjet" Unit="units" Internal="dr_subleadphofwdjet" Type="F" Min="3.98789942e-01" Max="7.53824949e+00"/>
    <Variable VarIndex="13" Expression="bjet1_discr" Label="bjet1_discr" Title="bjet1_discr" Unit="units" Internal="bjet1_discr" Type="F" Min="4.94153500e-01" Max="9.99999881e-01"/>
    <Variable VarIndex="14" Expression="bjet2_discr" Label="bjet2_discr" Title="bjet2_discr" Unit="units" Internal="bjet2_discr" Type="F" Min="-9.99000000e+02" Max="9.99999821e-01"/>
  </Variables>
  <Spectators NSpec="0"/>
  <Classes NClass="2">
    <Class Name="Signal" Index="0"/>
    <Class Name="Background" Index="1"/>
  </Classes>
  <Transformations NTransformations="1">
    <Transform Name="Normalize">
      <Selection>
        <Input NInputs="15">
          <Input Type="Variable" Label="dipho_pt" Expression="dipho_pt"/>
          <Input Type="Variable" Label="n_jets" Expression="n_jets"/>
          <Input Type="Variable" Label="n_bjets" Expression="n_bjets"/>
          <Input Type="Variable" Label="n_centraljets" Expression="n_centraljets"/>
          <Input Type="Variable" Label="bjet1_pt" Expression="bjet1_pt"/>
          <Input Type="Variable" Label="fwdjet1_eta" Expression="fwdjet1_eta"/>
          <Input Type="Variable" Label="dEta_leptonfwdjet" Expression="dEta_leptonfwdjet"/>
          <Input Type="Variable" Label="top_mt" Expression="top_mt"/>
          <Input Type="Variable" Label="dr_tHchainfwdjet" Expression="dr_tHchainfwdjet"/>
          <Input Type="Variable" Label="dr_leptonbjet" Expression="dr_leptonbjet"/>
          <Input Type="Variable" Label="dr_leptonfwdjet" Expression="dr_leptonfwdjet"/>
          <Input Type="Variable" Label="dr_leadphofwdjet" Expression="dr_leadphofwdjet"/>
          <Input Type="Variable" Label="dr_subleadphofwdjet" Expression="dr_subleadphofwdjet"/>
          <Input Type="Variable" Label="bjet1_discr" Expression="bjet1_discr"/>
          <Input Type="Variable" Label="bjet2_discr" Expression="bjet2_discr"/>
        </Input>
        <Output NOutputs="15">
          <Output Type="Variable" Label="dipho_pt" Expression="dipho_pt"/>
          <Output Type="Variable" Label="n_jets" Expression="n_jets"/>
          <Output Type="Variable" Label="n_bjets" Expression="n_bjets"/>
          <Output Type="Variable" Label="n_centraljets" Expression="n_centraljets"/>
          <Output Type="Variable" Label="bjet1_pt" Expression="bjet1_pt"/>
          <Output Type="Variable" Label="fwdjet1_eta" Expression="fwdjet1_eta"/>
          <Output Type="Variable" Label="dEta_leptonfwdjet" Expression="dEta_leptonfwdjet"/>
          <Output Type="Variable" Label="top_mt" Expression="top_mt"/>
          <Output Type="Variable" Label="dr_tHchainfwdjet" Expression="dr_tHchainfwdjet"/>
          <Output Type="Variable" Label="dr_leptonbjet" Expression="dr_leptonbjet"/>
          <Output Type="Variable" Label="dr_leptonfwdjet" Expression="dr_leptonfwdjet"/>
          <Output Type="Variable" Label="dr_leadphofwdjet" Expression="dr_leadphofwdjet"/>
          <Output Type="Variable" Label="dr_subleadphofwdjet" Expression="dr_subleadphofwdjet"/>
          <Output Type="Variable" Label="bjet1_discr" Expression="bjet1_discr"/>
          <Output Type="Variable" Label="bjet2_discr" Expression="bjet2_discr"/>
        </Output>
      </Selection>
      <Class ClassIndex="0">
        <Ranges>
          <Range Index="0" Min="2.0916705131530762e+00" Max="1.5581633300781250e+03"/>
          <Range Index="1" Min="2.0000000000000000e+00" Max="1.2000000000000000e+01"/>
          <Range Index="2" Min="1.0000000000000000e+00" Max="5.0000000000000000e+00"/>
          <Range Index="3" Min="0.0000000000000000e+00" Max="7.0000000000000000e+00"/>
          <Range Index="4" Min="2.5001287460327148e+01" Max="1.0326477050781250e+03"/>
          <Range Index="5" Min="-4.9993257522583008e+00" Max="4.9994254112243652e+00"/>
          <Range Index="6" Min="2.8967857360839844e-05" Max="7.3255176544189453e+00"/>
          <Range Index="7" Min="4.9081100463867188e+01" Max="1.7322156982421875e+03"/>
          <Range Index="8" Min="2.2968005388975143e-02" Max="1.0468291282653809e+01"/>
          <Range Index="9" Min="4.0047284960746765e-01" Max="5.5938057899475098e+00"/>
          <Range Index="10" Min="4.0954461693763733e-01" Max="7.7304263114929199e+00"/>
          <Range Index="11" Min="4.3578869104385376e-01" Max="7.3231859207153320e+00"/>
          <Range Index="12" Min="3.9878994226455688e-01" Max="7.5382494926452637e+00"/>
          <Range Index="13" Min="4.9415349960327148e-01" Max="9.9999988079071045e-01"/>
          <Range Index="14" Min="-9.9900000000000000e+02" Max="9.9999982118606567e-01"/>
        </Ranges>
      </Class>
      <Class ClassIndex="1">
        <Ranges>
          <Range Index="0" Min="6.3579040765762329e-01" Max="1.3986343994140625e+03"/>
          <Range Index="1" Min="2.0000000000000000e+00" Max="1.4000000000000000e+01"/>
          <Range Index="2" Min="1.0000000000000000e+00" Max="6.0000000000000000e+00"/>
          <Range Index="3" Min="0.0000000000000000e+00" Max="1.1000000000000000e+01"/>
          <Range Index="4" Min="2.5003200531005859e+01" Max="1.0997192382812500e+03"/>
          <Range Index="5" Min="-4.9999198913574219e+00" Max="4.9995746612548828e+00"/>
          <Range Index="6" Min="1.9609928131103516e-05" Max="7.0208411216735840e+00"/>
          <Range Index="7" Min="4.9582679748535156e+01" Max="1.5923333740234375e+03"/>
          <Range Index="8" Min="3.5856969654560089e-02" Max="1.0106554031372070e+01"/>
          <Range Index="9" Min="4.0584552288055420e-01" Max="5.2531566619873047e+00"/>
          <Range Index="10" Min="4.0273544192314148e-01" Max="7.3415279388427734e+00"/>
          <Range Index="11" Min="4.1182374954223633e-01" Max="7.2726268768310547e+00"/>
          <Range Index="12" Min="4.0126472711563110e-01" Max="7.2941355705261230e+00"/>
          <Range Index="13" Min="4.9447312951087952e-01" Max="9.9999970197677612e-01"/>
          <Range Index="14" Min="-9.9900000000000000e+02" Max="9.9999982118606567e-01"/>
        </Ranges>
      </Class>
      <Class ClassIndex="2">
        <Ranges>
          <Range Index="0" Min="6.3579040765762329e-01" Max="1.5581633300781250e+03"/>
          <Range Index="1" Min="2.0000000000000000e+00" Max="1.4000000000000000e+01"/>
          <Range Index="2" Min="1.0000000000000000e+00" Max="6.0000000000000000e+00"/>
          <Range Index="3" Min="0.0000000000000000e+00" Max="1.1000000000000000e+01"/>
          <Range Index="4" Min="2.5001287460327148e+01" Max="1.0997192382812500e+03"/>
          <Range Index="5" Min="-4.9999198913574219e+00" Max="4.9995746612548828e+00"/>
          <Range Index="6" Min="1.9609928131103516e-05" Max="7.3255176544189453e+00"/>
          <Range Index="7" Min="4.9081100463867188e+01" Max="1.7322156982421875e+03"/>
          <Range Index="8" Min="2.2968005388975143e-02" Max="1.0468291282653809e+01"/>
          <Range Index="9" Min="4.0047284960746765e-01" Max="5.5938057899475098e+00"/>
          <Range Index="10" Min="4.0273544192314148e-01" Max="7.7304263114929199e+00"/>
          <Range Index="11" Min="4.1182374954223633e-01" Max="7.3231859207153320e+00"/>
          <Range Index="12" Min="3.9878994226455688e-01" Max="7.5382494926452637e+00"/>
          <Range Index="13" Min="4.9415349960327148e-01" Max="9.9999988079071045e-01"/>
          <Range Index="14" Min="-9.9900000000000000e+02" Max="9.9999982118606567e-01"/>
        </Ranges>
      </Class>
    </Transform>
  </Transformations>
  <MVAPdfs/>
  <Weights>
    <Layout NLayers="3">
      <Layer Index="0" NNeurons="16">
        <Neuron NSynapses="20">
          6.9891372778475847e-01 2.1995881396400949e+00 2.2205493446519418e+00 2.0662239030994063e+00 -6.5446161136366066e-01 -1.4123835890626046e+00 -3.6953054309216721e-01 3.1156969503696015e+00 -2.6155307765288621e-01 -2.3714013376000236e+00 -9.7777046238969212e-01 2.9349428720827836e-01 -5.0411390066224815e+00 -3.4298491821530475e-01 -4.5573154682968142e-01 1.1243733927427817e+00 -3.0410846171870515e-01 6.3999555365243097e+00 -9.3209584281400970e-01 8.3496778404764671e-01 
        </Neuron>
        <Neuron NSynapses="20">
          1.8340640391566647e+00 -3.1910420764369835e-01 1.9222606611247295e-01 5.5593595574774657e-01 1.1725870542691221e+00 -1.1040686468390442e+00 1.7765464716147741e+00 -3.5603750031554458e+00 2.6656981627234427e-01 -1.2901356366680230e+00 4.8924667769915731e-01 -1.2037745477318571e+00 1.2186956680987788e+00 1.0334472799623141e-01 -1.9095208153345478e+00 3.8577838737162279e-01 -1.8252566534896459e+00 9.1399854171292316e-02 2.0045369388841044e-01 4.6675079457053874e+00 
        </Neuron>
        <Neuron NSynapses="20">
          -2.0226747329421679e-01 1.1443295482796576e+00 1.2490699749515748e+00 1.6628049305218089e+00 -1.4049446541706412e+00 -1.1689097054133066e+00 1.3765213690745357e+00 4.6209364660800887e+00 2.0851977949494169e+00 2.2741644897715800e+00 -8.6404790252956831e-01 1.1783057451885020e+00 -2.5154502779738248e+00 -3.0371031918470320e-01 -1.3035753653814044e+00 -1.2991820264645590e+00 -9.0375919928177140e-01 -2.1292178121412748e+00 -5.5913741001171979e-01 1.3792324802577896e+00 
        </Neuron>
        <Neuron NSynapses="20">
          -2.9952630949952366e+00 8.3997520494221378e-01 3.6383789461128186e+00 1.1798000654639484e+00 2.7169411295447010e-01 -4.4934706773628985e-01 4.5682971709343995e-01 -1.7469146537676885e+00 1.6068231201511537e-01 -3.3910804059302374e-01 -1.1949362218240336e+00 9.9225674881827639e-02 2.2995103085362563e+00 -2.2210639144322903e+00 -3.2919716262194276e-01 -1.2210693943407041e+00 -2.6506834296075601e+00 -2.5257948812660018e+00 -3.8427089977775503e-01 6.1970003172290311e-01 
        </Neuron>
        <Neuron NSynapses="20">
          5.8006021411436059e-01 1.7853697388648997e+00 8.2021825586561181e-01 -2.3873506109906212e-01 -1.7234621957945628e-01 -2.3477098593305170e+00 1.1793727460549639e+00 -9.7169334240486449e-01 -2.6547495543508313e+00 -1.1446698748996538e+00 -1.1562098520129070e-01 -3.3605546662021879e-01 2.5976944567838309e+00 -7.3238916320486347e-01 7.4505000840481150e-01 4.4452903863928445e-01 -1.0270613889462037e+00 2.1996713977363962e+00 1.0176335119365920e+00 -1.7382942037100640e-01 
        </Neuron>
        <Neuron NSynapses="20">
          1.8521863281153669e-01 -1.5230487424003660e+00 -1.9721081110503064e-01 1.1037631622261881e+00 -4.8575590008494753e+00 -1.7903929705822724e-01 -6.0525116761512454e-01 -5.0666190529305066e-01 6.8874618988937242e-01 -1.0491199819794103e-01 -9.3617297607771750e+00 -1.1723389681685552e+00 -7.1630822074183795e-02 7.3447154841032791e+00 -8.2436390036016627e-01 2.7573510736535281e+00 7.9826111699371938e-01 9.4218429743491816e-02 4.6600923417002234e+00 -1.2942264930847411e-01 
        </Neuron>
        <Neuron NSynapses="20">
          -1.6417629923827213e+00 1.6828963686143933e-01 -1.1496915328497614e+00 1.8734636357206800e+00 1.3363106854251139e+00 -1.9668015671637720e-01 -2.8476988481427223e-01 4.2444901496587661e-01 -1.8527387728495062e+00 6.1308831743656844e-01 1.1739176222624816e+00 1.0580601965895866e+00 1.1160761236485011e+00 -1.1595621237431476e-01 8.4065573766910695e-01 1.1379389655360270e+00 2.3460301955678720e+00 -7.0922026010912287e-01 2.6921496915170890e+00 8.7970397910566855e-01 
        </Neuron>
        <Neuron NSynapses="20">
          -9.6945780417557281e-01 2.5710410500304104e-01 -2.9784812874108977e+00 3.1614103001026783e-01 -1.6077172612828117e+00 1.7870454854769066e-01 1.3802216246634200e+00 -5.5477644597886959e+00 -2.1323539950896313e+00 -4.8399540307517999e+00 9.1375545794204593e-01 -1.4579623297794486e+00 7.4521807479044115e+00 1.6729343424675165e+00 -1.1100064194140964e+00 -9.0558638817588366e-01 1.9335050328365340e+00 -5.1303329617757072e+00 -1.2162473595813386e+00 -1.6900889737242533e-01 
        </Neuron>
        <Neuron NSynapses="20">
          2.8563536052663896e-01 8.2749316113418764e-02 -9.6323291086368090e-01 7.3191458128216247e-01 -1.3978426658898402e+00 -8.1902025331080341e-01 -3.0995306533082190e-01 6.9670511346909048e-02 8.9699579006392427e-01 -2.1430540571079251e-01 -1.3015932417902890e-01 3.5899256601619522e+00 -1.6964955153112990e-01 -4.8447713961200911e-01 2.6974674671322032e+00 3.4158390925872828e-01 9.6596032240316299e-01 -1.9984209089391722e-01 2.0137293290468417e-01 3.8080125122642416e-01 
        </Neuron>
        <Neuron NSynapses="20">
          -7.6583002228605346e-01 1.6696733249613744e+00 1.1114677750900617e+00 -1.1808611480101892e+00 3.8022190219438728e-01 2.7941486361728978e+00 5.2673627098089348e-01 -2.0187343125672590e+00 2.0017379823756443e-01 2.0852192246313792e+00 2.1423009596133016e-01 3.3775670343240149e-01 2.4017007321820198e+00 1.3681667605352718e-01 8.9476954711780310e-01 1.6042853943744301e-01 -2.1632880463572493e+00 1.2165220959183853e+00 2.2459015803125651e-01 -4.4926419174384996e-01 
        </Neuron>
        <Neuron NSynapses="20">
          -7.4830108030125542e-01 3.9046476572033956e-01 1.1348120080422885e+00 -1.8498048032781353e+00 2.1488885267972111e+00 -1.5379443750434917e-02 -5.5193168560164318e-01 -1.0121153275054637e-01 7.8782409692436239e-01 -1.5537172726549026e-01 -9.6047752195657843e-01 -5.4078553638944338e-01 -8.5664935027887101e-01 2.7932694483220577e-01 -1.6906695501173241e-01 -4.9267158355988841e-02 3.2600303508771555e-01 1.0936571391577523e+00 4.9909824036475758e-01 -9.5437819048353756e-01 
        </Neuron>
        <Neuron NSynapses="20">
          -1.4555358224566450e+00 1.8309434683044951e-01 3.5603999242358975e-01 9.6463474991859632e-01 7.0268446253736561e-01 -1.0702945973301085e-01 8.9992460657707207e-01 2.8534300491524800e-01 7.9230550953829126e-01 -4.2499086541592634e-01 -7.1160824372640774e-01 -1.0114138614025835e-01 -7.5987518437443724e-01 -1.7392609320807551e-01 1.6626406845536168e+00 -2.6483394954467530e+00 1.7422031637790786e-01 -2.4895508174579431e-01 -1.0059010315452029e-01 -5.0343818547797525e-01 
        </Neuron>
        <Neuron NSynapses="20">
          -8.6685605656665410e-01 -2.2591324284182362e-01 -1.5582908989337482e-01 -1.5120356444854379e+00 -2.0400564345006700e-01 6.3894302827088423e-01 -7.9374084055873440e-01 -7.2214399287242381e-01 4.9525824691830767e-01 5.1189471383924479e-01 -4.9570189138945070e-01 -2.9243909508193905e-03 6.1904088843811711e-01 -5.8068211391489244e-01 9.6479824635176681e-01 -1.7321894362866403e+00 -2.0992676766085769e+00 -2.9601667878358436e-02 -1.7988520063519209e-01 1.6294058842403961e-01 
        </Neuron>
        <Neuron NSynapses="20">
          1.1099167198865770e-01 -7.3501212739962107e-01 -3.4841265641249725e-01 -6.7876232961089444e-01 -1.5481459664219748e-02 1.5496754196236881e-01 -1.4377523265764147e+00 6.5020640249413564e-01 3.4893413164313430e-01 -3.5139433163371087e-01 -4.8924845508883746e-01 4.2545335990960004e-01 -3.0790697540929574e-01 -1.9663189343519472e-01 -2.3729851726958845e-01 1.5735300736752852e-01 1.6503029842972627e-01 1.1625430803655182e-01 -1.7531314425738434e-01 4.4271581111145697e-01 
        </Neuron>
        <Neuron NSynapses="20">
          -6.4054999204205987e-02 -6.3431706135518018e-01 -3.5809479138559264e-01 -3.7589882064061869e-01 2.3624849751910476e-01 -4.5574490518189643e+00 -8.7844520555990191e-01 -3.6783315484080931e-01 6.9427423243463460e-02 3.5915035865056182e+00 2.9101956386643074e-01 -1.2435534809905081e-01 -5.9595847068044385e+00 7.7750258840480507e-02 3.7333341938432879e-01 -2.3089054325977894e+00 -3.5159893502590606e-01 2.9955341133551822e-01 -4.7347250116498270e-02 -4.9890571737645945e-01 
        </Neuron>
        <Neuron NSynapses="20">
          -3.9179354269166193e+00 -1.4549565671334037e+00 3.2991884662871773e+00 -1.2678225448537819e+00 1.2956442633556411e+00 -2.3431659061508485e+00 -1.7851277766365807e+00 -4.6704170639117386e+00 -6.0772643107229030e-01 -2.1446636803796402e+00 3.3932721490403246e+00 -1.5687907871303537e+00 -1.3694750633602044e+00 2.1455795196934315e+00 -5.8047409126082383e-01 -6.6539040409864725e-01 1.6977558468183076e+00 9.1928265300993761e-01 3.0620014576432601e+00 4.6725336736072185e+00 
        </Neuron>
      </Layer>
      <Layer Index="1" NNeurons="21">
        <Neuron NSynapses="1">
          -9.8895416789134261e-01 
        </Neuron>
        <Neuron NSynapses="1">
          -2.3305986701666082e+00 
        </Neuron>
        <Neuron NSynapses="1">
          -6.7362710175620977e-01 
        </Neuron>
        <Neuron NSynapses="1">
          6.9716100627422950e-01 
        </Neuron>
        <Neuron NSynapses="1">
          -7.1158715385255544e-01 
        </Neuron>
        <Neuron NSynapses="1">
          1.1338998955730055e+00 
        </Neuron>
        <Neuron NSynapses="1">
          -1.7320359823396810e-02 
        </Neuron>
        <Neuron NSynapses="1">
          6.3459305824045487e-01 
        </Neuron>
        <Neuron NSynapses="1">
          -8.4676813230190195e-01 
        </Neuron>
        <Neuron NSynapses="1">
          8.1373483595177576e-01 
        </Neuron>
        <Neuron NSynapses="1">
          -7.6458105678835553e-01 
        </Neuron>
        <Neuron NSynapses="1">
          5.5441256812954753e-01 
        </Neuron>
        <Neuron NSynapses="1">
          -7.2752215682717780e-01 
        </Neuron>
        <Neuron NSynapses="1">
          -6.0273225993174573e-01 
        </Neuron>
        <Neuron NSynapses="1">
          3.5031775111282737e-01 
        </Neuron>
        <Neuron NSynapses="1">
          2.1821655481437241e-01 
        </Neuron>
        <Neuron NSynapses="1">
          1.1454433537622761e+00 
        </Neuron>
        <Neuron NSynapses="1">
          9.4124582571915516e-01 
        </Neuron>
        <Neuron NSynapses="1">
          -8.8087880656445483e-01 
        </Neuron>
        <Neuron NSynapses="1">
          -5.3327062203704834e-01 
        </Neuron>
        <Neuron NSynapses="1">
          -1.1556109051108441e+00 
        </Neuron>
      </Layer>
      <Layer Index="2" NNeurons="1">
        <Neuron NSynapses="0"/>
      </Layer>
    </Layout>
  </Weights>
</MethodSetup>
